0.312500
0.187500
0.187500
0.187500
0.187500
0.468750
0.312500
0.312500
0.312500
0.187500
0.187500
0.187500
-0.093750
0.062500
-0.031250
-0.187500
-0.281250
-0.031250
-0.031250
-0.031250
0.312500
0.187500
-0.031250
0.187500
0.062500
-0.406250
-0.406250
-0.281250
0.187500
-0.406250
-0.406250
-0.281250
-0.406250
-0.281250
-0.562500
-0.406250
-0.281250
-0.187500
-0.187500
-0.781250
-0.187500
-0.281250
-0.187500
-0.281250
-0.406250
-0.187500
-0.406250
-0.093750
0.062500
-0.031250
-0.406250
0.062500
0.187500
0.187500
0.062500
-0.031250
-0.187500
-0.187500
-0.187500
-0.031250
0.187500
-0.031250
-0.187500
-0.281250
-0.406250
0.187500
-0.093750
-0.187500
-0.406250
-0.562500
0.312500
0.062500
0.187500
0.062500
-0.562500
-0.187500
-0.093750
-0.281250
0.062500
-0.093750
0.312500
0.062500
0.062500
-0.187500
-0.093750
0.062500
0.062500
-0.093750
0.062500
0.312500
-0.031250
-0.187500
-0.031250
0.187500
0.468750
0.468750
0.312500
-0.093750
0.062500
-0.187500
0.312500
0.312500
0.468750
0.468750
1.000000
0.468750
0.062500
0.062500
0.187500
0.468750
0.312500
0.187500
0.187500
0.187500
0.312500
0.468750
0.187500
0.187500
0.312500
0.312500
0.187500
0.062500
0.187500
0.062500
0.312500
-0.281250
-0.093750
0.062500
0.062500
-0.031250
-0.187500
-0.093750
-0.031250
0.062500
-0.406250
-0.281250
0.187500
-0.093750
0.062500
-0.281250
-0.031250
0.062500
-0.093750
-0.031250
-0.406250
0.468750
0.187500
-0.031250
-0.093750
-0.031250
