-0.906250
0.281250
-0.250000
0.125000
-0.531250
-0.718750
-0.375000
-0.375000
0.125000
0.437500
0.125000
-0.125000
-0.250000
-0.531250
-1.718750
0.125000
-0.125000
0.281250
0.125000
-0.375000
-0.375000
0.125000
0.125000
0.125000
0.125000
-0.375000
0.125000
-0.250000
-0.125000
-0.125000
-0.125000
0.000000
0.281250
0.000000
-0.375000
-0.718750
-0.250000
-0.125000
-0.125000
-0.250000
-0.250000
0.000000
-0.250000
-0.250000
-0.718750
-0.375000
0.281250
-0.125000
0.000000
0.125000
-1.156250
-0.375000
-0.250000
0.000000
-0.250000
-0.250000
0.000000
-0.375000
0.125000
-0.906250
-0.531250
0.000000
0.125000
0.281250
-0.718750
0.125000
0.000000
-0.250000
0.281250
-0.531250
0.281250
0.437500
0.281250
0.125000
-0.375000
0.437500
-0.531250
-0.125000
-0.125000
0.281250
-0.125000
0.281250
0.281250
0.000000
-0.375000
0.281250
0.000000
0.656250
-0.375000
0.437500
0.281250
-0.125000
0.125000
-0.125000
0.281250
0.437500
0.125000
0.125000
0.437500
0.281250
-0.718750
-0.375000
-0.125000
-0.718750
-0.531250
0.125000
-0.125000
0.281250
-0.718750
0.125000
0.281250
0.281250
-0.125000
-0.375000
0.281250
0.937500
0.281250
0.281250
-0.125000
0.125000
0.281250
0.125000
0.125000
-0.125000
0.437500
-0.125000
0.437500
0.125000
0.125000
0.125000
-1.156250
-0.375000
0.437500
-0.125000
0.000000
-1.718750
-0.125000
-0.375000
0.125000
0.125000
-0.906250
0.125000
-0.250000
0.125000
0.125000
-0.375000
-0.250000
-0.125000
-0.250000
-0.125000
