-0.406250
0.203125
-0.296875
0.203125
0.203125
0.046875
-0.718750
0.656250
0.328125
-1.328125
-0.031250
-0.203125
-0.125000
0.328125
-0.203125
-0.203125
-0.203125
0.046875
-0.125000
0.328125
-0.203125
-0.296875
-0.406250
0.656250
0.125000
-0.546875
0.203125
-0.203125
-0.296875
0.328125
-0.125000
-0.906250
0.328125
0.328125
-0.296875
-0.125000
-0.125000
0.125000
0.125000
0.046875
-0.125000
-0.125000
0.203125
0.203125
0.046875
-0.296875
-0.546875
-0.296875
0.328125
-0.203125
-0.296875
0.328125
-0.125000
-0.203125
0.046875
-0.125000
-0.718750
0.328125
0.046875
0.046875
-0.125000
-0.031250
0.125000
0.203125
-0.203125
-0.031250
-0.203125
-0.031250
0.125000
0.203125
-0.296875
-0.125000
-0.125000
0.468750
-0.125000
-0.406250
0.203125
-0.406250
-0.031250
0.125000
-0.203125
-0.406250
0.125000
0.125000
0.125000
0.046875
-0.031250
0.046875
0.125000
-0.203125
0.046875
0.046875
-0.125000
-0.125000
0.328125
-0.406250
-0.125000
-0.406250
0.328125
-0.546875
-0.296875
0.125000
-0.203125
-0.125000
0.328125
-0.125000
-0.406250
0.125000
-0.031250
0.328125
-0.203125
0.046875
-0.203125
-0.031250
0.203125
-0.125000
-0.125000
-0.031250
-0.203125
0.203125
-0.203125
-0.203125
-0.125000
0.203125
-0.125000
-0.546875
0.328125
-0.296875
-0.125000
0.328125
0.046875
-0.296875
0.203125
0.203125
-0.031250
-0.031250
0.046875
-0.031250
-0.125000
-0.296875
-0.031250
0.125000
0.046875
0.046875
0.046875
-0.406250
0.046875
-0.203125
0.046875
0.203125
-0.546875
0.203125
-0.406250
-0.125000
0.656250
-0.203125
-0.125000
0.125000
0.203125
0.125000
-0.203125
-0.031250
0.203125
-0.031250
-0.546875
0.046875
-0.125000
0.203125
-0.125000
-1.328125
-0.406250
-0.203125
-0.296875
0.328125
0.203125
-0.296875
0.125000
-0.031250
-0.203125
0.203125
0.125000
-0.546875
0.468750
0.046875
-1.328125
-0.125000
-0.031250
-0.031250
0.203125
0.046875
0.046875
0.203125
0.046875
-0.125000
0.203125
-0.296875
0.125000
-0.031250
0.203125
-0.203125
-0.406250
0.046875
0.125000
-0.546875
0.468750
-0.125000
-0.546875
0.203125
0.203125
-0.906250
0.046875
0.203125
0.203125
0.046875
-0.125000
-0.125000
0.125000
-0.031250
-0.203125
0.328125
-0.406250
-0.203125
0.125000
-0.031250
0.203125
-0.296875
0.328125
-0.125000
-0.203125
-0.125000
0.125000
-0.718750
0.328125
0.203125
-0.125000
-0.125000
0.046875
0.046875
0.125000
-0.031250
-0.203125
0.125000
-0.203125
-0.203125
0.125000
-0.406250
-0.031250
-0.125000
0.046875
-0.125000
-0.296875
0.328125
-0.406250
-0.125000
0.125000
-0.125000
-0.406250
0.328125
0.046875
0.046875
-0.203125
0.125000
0.125000
0.203125
-0.125000
0.046875
0.203125
0.125000
-0.031250
0.203125
-0.125000
0.046875
-0.031250
0.203125
-0.296875
-0.406250
0.203125
-0.203125
0.046875
0.125000
-0.031250
-0.031250
-0.031250
-0.203125
0.203125
0.046875
0.046875
-0.031250
0.046875
-0.406250
-0.125000
0.046875
-0.031250
-0.203125
0.203125
-0.125000
-0.031250
0.125000
0.125000
-0.406250
-0.406250
0.203125
-0.125000
-0.125000
-0.031250
-0.031250
-0.125000
0.125000
0.125000
-0.125000
-0.125000
0.203125
-0.125000
0.125000
-0.296875
-0.203125
0.203125
-0.031250
0.046875
0.046875
-0.125000
0.125000
0.046875
0.046875
-0.125000
-0.406250
0.203125
-0.906250
0.125000
0.203125
-0.203125
0.203125
-0.031250
-0.296875
-0.031250
-0.203125
-0.125000
-0.203125
0.328125
-0.296875
-0.125000
0.046875
-0.031250
0.125000
-0.296875
-0.296875
-0.296875
-0.125000
0.468750
0.203125
-0.406250
-0.031250
-0.125000
-0.031250
-0.203125
0.046875
-0.406250
0.468750
-0.031250
-0.906250
-0.125000
0.328125
-0.296875
0.046875
0.125000
-0.203125
-0.031250
-0.203125
0.046875
-0.031250
-0.406250
-0.031250
-0.296875
0.046875
0.125000
-0.203125
-0.718750
-0.125000
-0.406250
1.234375
-0.031250
-0.203125
0.203125
0.125000
-1.328125
0.046875
0.125000
0.046875
0.046875
-0.031250
-0.125000
0.125000
-0.125000
0.046875
-0.125000
-0.203125
-0.296875
-0.125000
0.203125
0.203125
-0.406250
-0.031250
-0.296875
-0.296875
0.328125
-0.031250
-0.125000
0.203125
-0.031250
-1.328125
-0.203125
0.203125
0.046875
0.125000
-0.203125
-0.203125
0.046875
0.046875
0.046875
-0.125000
-0.406250
-0.125000
-0.125000
0.203125
0.046875
-0.296875
-0.125000
-0.296875
-0.406250
0.328125
-0.125000
0.125000
0.046875
-0.125000
-0.203125
-0.203125
0.203125
-0.203125
0.125000
-0.296875
-0.125000
0.125000
0.046875
0.046875
-0.125000
-0.203125
-0.125000
-0.203125
0.203125
0.125000
-0.406250
-0.125000
-0.203125
-0.203125
0.125000
-0.203125
0.328125
-0.031250
0.125000
-0.296875
-0.031250
0.125000
0.125000
0.203125
-0.296875
-0.031250
-0.125000
0.046875
0.203125
0.203125
-0.125000
-0.296875
0.125000
0.046875
-0.031250
-0.546875
0.046875
0.046875
-0.296875
0.328125
0.125000
0.328125
0.046875
0.125000
-0.203125
-0.203125
0.125000
-0.031250
0.203125
0.328125
-0.125000
-0.125000
-0.031250
-0.031250
0.125000
-0.296875
-0.203125
-0.125000
0.203125
-0.203125
-0.406250
-0.203125
-0.546875
0.046875
0.328125
0.046875
0.046875
-0.031250
-0.125000
-0.031250
-0.031250
0.468750
-0.203125
0.125000
0.125000
-0.031250
0.203125
-0.031250
0.046875
-0.406250
-0.203125
-0.125000
-0.296875
0.125000
-0.125000
-0.546875
0.468750
-0.906250
0.203125
0.046875
0.046875
-0.203125
0.468750
-0.203125
-0.406250
-0.125000
0.203125
-0.031250
0.125000
0.046875
-0.203125
0.046875
0.046875
-0.203125
0.125000
-0.203125
0.203125
-0.031250
0.125000
0.203125
-0.406250
-1.328125
-0.546875
0.046875
1.234375
0.125000
0.328125
0.125000
0.046875
-0.546875
-0.125000
0.203125
0.125000
0.046875
-0.031250
-0.031250
-0.203125
0.046875
-0.125000
0.203125
-0.406250
-0.031250
0.125000
-0.031250
0.328125
-0.406250
-0.125000
-0.203125
-0.203125
0.203125
-0.031250
0.046875
0.125000
-0.031250
-0.546875
-0.203125
0.203125
-0.031250
0.046875
-0.203125
0.046875
0.046875
0.125000
-0.125000
-0.031250
-0.203125
0.046875
-0.031250
0.046875
-0.125000
-0.203125
0.046875
-0.906250
-0.125000
0.468750
0.046875
-0.406250
0.203125
-0.031250
0.125000
-0.203125
0.203125
-0.125000
0.046875
-0.296875
0.046875
-0.031250
0.125000
-0.125000
-0.031250
-0.125000
-0.203125
0.203125
0.046875
0.203125
-0.406250
-0.296875
-0.546875
-0.203125
0.656250
-0.125000
-0.031250
0.328125
-0.406250
-0.406250
-0.203125
0.203125
-0.031250
0.046875
-0.203125
0.046875
-0.031250
0.125000
-0.125000
0.046875
-0.203125
0.046875
0.203125
0.125000
-0.031250
-0.296875
-0.296875
-0.546875
0.046875
0.203125
0.125000
0.203125
0.328125
-0.125000
-0.546875
0.046875
0.125000
0.125000
0.046875
-0.125000
-0.125000
-0.031250
-0.031250
-0.125000
-0.031250
-0.296875
-0.031250
0.046875
0.125000
-0.203125
-0.296875
0.203125
-0.906250
-0.203125
0.656250
-0.125000
-0.296875
0.468750
-0.203125
0.046875
0.046875
0.328125
-0.031250
-0.031250
-0.296875
-0.125000
0.468750
0.046875
-0.125000
0.046875
-0.125000
-0.203125
-0.203125
-0.031250
0.125000
-0.296875
0.656250
-0.718750
-0.203125
-0.031250
-0.125000
-0.406250
0.656250
-0.296875
-0.296875
-0.203125
-0.203125
0.125000
0.046875
-0.031250
-0.203125
0.468750
-0.125000
-0.125000
-0.203125
-0.406250
-0.125000
0.468750
-0.406250
-0.296875
-0.203125
-0.296875
-0.203125
-0.906250
1.234375
-0.031250
-0.125000
0.328125
-0.203125
-0.546875
-0.031250
-0.125000
0.046875
-0.125000
0.046875
-0.125000
0.046875
-0.031250
-0.031250
0.046875
-0.125000
-0.406250
0.203125
-0.296875
0.328125
-0.203125
0.203125
-0.296875
-0.718750
0.468750
-0.125000
-0.203125
0.328125
-0.406250
-0.031250
-0.125000
-0.031250
0.203125
0.125000
0.203125
-0.125000
0.046875
0.125000
0.046875
0.125000
-0.125000
-0.296875
0.046875
-0.031250
0.468750
-0.406250
0.203125
-0.031250
-0.906250
0.203125
0.125000
-0.546875
0.203125
-0.203125
-0.296875
-0.125000
-0.125000
0.125000
0.203125
-0.203125
0.046875
0.125000
0.125000
-0.125000
0.125000
-0.203125
-0.406250
-0.031250
0.125000
0.203125
-0.203125
-0.125000
0.203125
-0.906250
0.328125
-0.125000
-0.296875
0.203125
-0.125000
-0.296875
-0.203125
-0.031250
-0.031250
0.046875
-0.031250
-0.031250
-0.031250
-0.031250
-0.031250
0.125000
-0.406250
-0.203125
-0.031250
0.125000
-0.125000
-0.203125
-1.328125
-0.203125
-0.296875
0.656250
0.046875
0.203125
0.328125
-0.203125
-0.546875
-0.125000
-0.031250
0.125000
0.046875
-0.125000
-0.203125
-0.031250
-0.031250
-0.031250
0.203125
-0.125000
-0.031250
-0.203125
0.046875
0.125000
-0.406250
-0.406250
-0.296875
-0.031250
0.328125
-0.203125
-0.296875
0.468750
-0.546875
0.203125
-0.031250
0.125000
-0.031250
-0.031250
0.046875
-0.125000
0.203125
0.046875
0.046875
-0.031250
-0.203125
-0.203125
-0.125000
0.203125
0.046875
-0.718750
-0.406250
0.328125
-0.406250
0.125000
-0.125000
-0.203125
0.328125
-0.406250
0.125000
-0.031250
-0.125000
0.046875
-0.031250
-0.031250
-0.031250
-0.125000
0.046875
0.203125
-0.203125
-0.203125
-0.031250
0.203125
0.046875
-0.296875
-0.406250
-0.546875
0.468750
-0.125000
0.203125
0.046875
-0.296875
0.328125
0.203125
-0.031250
-0.031250
-0.125000
0.046875
0.046875
0.046875
0.046875
-0.203125
-0.031250
0.046875
-0.125000
-0.203125
0.203125
-0.203125
-0.125000
0.203125
-0.546875
-0.406250
0.203125
-0.125000
0.328125
0.046875
-0.031250
0.328125
0.046875
-0.296875
-0.125000
-0.125000
-0.125000
-0.031250
0.203125
-0.203125
-0.296875
0.203125
0.046875
-0.031250
-0.125000
0.046875
-0.203125
-0.031250
0.125000
-0.203125
-0.718750
0.125000
-0.203125
0.656250
0.125000
-0.125000
0.328125
0.046875
-0.406250
-0.203125
-0.031250
0.046875
0.046875
0.125000
-0.031250
-0.125000
0.203125
0.046875
0.046875
-0.406250
-0.031250
0.046875
-0.203125
0.046875
-0.546875
-0.406250
-0.203125
-0.125000
0.656250
0.046875
-0.296875
0.328125
0.046875
-0.406250
-0.125000
-0.031250
-0.031250
-0.031250
0.468750
-0.031250
0.125000
0.125000
0.125000
-0.031250
-0.203125
0.046875
-0.031250
-0.031250
-0.203125
-0.296875
-0.718750
-0.296875
-0.546875
1.234375
-0.031250
-0.406250
0.328125
-0.296875
-0.406250
-0.203125
-0.031250
0.046875
-0.031250
0.046875
0.046875
0.046875
0.125000
0.046875
0.046875
-0.406250
0.203125
-0.031250
-0.125000
0.203125
-0.546875
0.328125
-0.718750
-0.031250
0.468750
0.046875
-0.546875
0.468750
-0.406250
0.125000
-0.125000
0.125000
0.125000
-0.125000
0.046875
0.046875
-0.031250
0.203125
0.046875
-0.125000
-0.406250
0.046875
-0.031250
-0.125000
0.328125
-0.718750
0.203125
-0.546875
0.046875
0.656250
-0.203125
-0.203125
0.125000
0.203125
0.203125
-0.203125
-0.296875
0.656250
-0.031250
-0.718750
-0.125000
-0.031250
0.125000
-0.203125
-0.296875
-0.203125
-0.203125
0.203125
-0.296875
-0.031250
-0.718750
0.125000
0.046875
-0.203125
0.468750
-0.125000
0.046875
0.203125
0.046875
0.203125
-0.203125
-0.031250
-0.031250
0.125000
-0.296875
-0.203125
-0.125000
0.125000
0.046875
0.125000
-0.203125
0.046875
-0.031250
0.125000
0.328125
-0.546875
0.203125
0.046875
-0.203125
-0.125000
-0.031250
0.328125
0.046875
0.046875
-0.296875
-0.125000
0.046875
0.125000
-0.203125
-0.125000
-0.203125
0.046875
-0.031250
-0.031250
-0.031250
-0.203125
0.203125
-0.031250
0.046875
0.203125
-0.406250
0.203125
0.046875
-0.296875
-0.203125
-0.125000
0.125000
0.125000
0.125000
-0.406250
0.046875
0.203125
0.203125
-0.125000
-0.296875
-0.203125
0.046875
-0.031250
-0.125000
-0.296875
-0.406250
-0.125000
0.203125
-0.203125
-0.203125
-0.546875
0.125000
-0.296875
-0.031250
0.203125
0.046875
0.046875
-0.125000
-0.203125
0.203125
-0.125000
-0.031250
0.046875
-0.031250
-0.718750
-0.203125
-0.031250
-0.031250
0.125000
-0.296875
-0.203125
0.046875
0.125000
-0.203125
-0.546875
-0.546875
-0.203125
0.328125
-0.406250
0.203125
-0.203125
-0.125000
0.125000
-0.125000
0.203125
-0.031250
0.046875
0.046875
-0.031250
-0.546875
-0.125000
-0.203125
-0.031250
-0.031250
0.046875
-0.296875
-0.125000
0.125000
-0.203125
-0.406250
-0.406250
0.328125
0.046875
-0.296875
-0.406250
-0.203125
-0.125000
0.203125
-0.203125
-0.031250
-0.203125
-0.406250
0.468750
0.125000
-0.031250
-0.031250
-0.125000
0.046875
-0.125000
0.046875
-0.296875
-0.203125
0.046875
0.203125
0.203125
