-0.546875
0.093750
-0.281250
1.046875
-0.734375
-0.281250
0.234375
0.531250
-0.734375
-0.546875
-0.546875
-0.156250
-0.734375
0.093750
1.046875
-0.546875
0.234375
-0.015625
0.531250
-0.546875
-0.546875
-0.015625
-0.281250
-0.734375
0.390625
-0.390625
-0.156250
-0.156250
0.750000
-0.156250
-0.390625
-0.281250
0.531250
0.093750
-0.281250
-0.390625
0.093750
-0.281250
-0.156250
0.390625
-0.546875
0.234375
0.093750
0.234375
-0.156250
-0.390625
0.093750
-0.156250
-0.390625
0.234375
-0.390625
-0.156250
-0.390625
0.750000
-0.015625
-0.390625
-0.156250
1.046875
-0.015625
-0.546875
-0.281250
-0.156250
-0.015625
-0.281250
0.234375
-0.390625
0.234375
0.531250
-0.390625
-0.281250
-0.390625
0.093750
0.234375
-1.296875
0.093750
-0.390625
-0.156250
-0.156250
0.531250
0.093750
-0.281250
0.093750
0.531250
-0.015625
-0.734375
-0.546875
-0.015625
0.234375
0.390625
0.093750
-0.390625
-0.015625
0.234375
0.093750
-0.156250
-0.546875
0.390625
-0.281250
-0.734375
0.093750
-0.390625
-0.156250
0.093750
0.234375
0.234375
-0.390625
-0.281250
0.234375
-0.156250
-0.281250
-0.546875
-0.390625
-0.281250
1.375000
0.390625
-0.546875
-0.156250
0.234375
-0.015625
0.093750
-0.390625
0.093750
-0.281250
-0.390625
0.234375
-0.546875
-0.281250
-0.156250
1.046875
-0.015625
-0.281250
0.390625
0.390625
-0.156250
-0.734375
-0.546875
-0.734375
0.531250
0.093750
0.093750
-0.546875
0.234375
0.093750
0.234375
-0.156250
-0.390625
0.390625
-0.156250
-1.000000
0.093750
-0.390625
-0.546875
-0.156250
0.750000
0.093750
-0.390625
0.531250
0.390625
0.093750
-0.546875
-0.546875
0.531250
-0.015625
-2.000000
-0.281250
-0.546875
0.234375
-0.156250
0.390625
-0.281250
-0.546875
0.390625
-0.015625
-1.000000
0.093750
-0.281250
0.234375
-0.546875
0.531250
-0.015625
-0.281250
-0.015625
-0.156250
-0.546875
0.234375
-0.546875
0.531250
-0.281250
0.531250
-0.156250
-0.390625
0.093750
0.234375
-0.734375
0.093750
-0.546875
0.093750
-0.281250
0.093750
0.234375
-0.281250
0.234375
-0.390625
0.234375
-0.156250
-0.390625
-0.390625
0.390625
-0.734375
-0.156250
-0.281250
0.093750
-0.156250
1.375000
-0.390625
-0.390625
0.093750
0.093750
0.390625
-0.390625
-0.390625
0.093750
0.093750
-0.734375
0.093750
-0.281250
0.093750
-0.546875
0.531250
0.093750
-0.390625
-0.546875
0.750000
-0.546875
0.093750
-0.390625
0.234375
0.093750
0.234375
-0.281250
-0.390625
-0.156250
0.390625
-0.281250
-0.156250
-0.390625
0.390625
-0.156250
-1.296875
-0.156250
-0.390625
-0.156250
-0.156250
0.390625
0.234375
-0.156250
-0.734375
0.531250
-0.281250
0.234375
-0.546875
0.531250
-0.156250
-0.546875
-0.281250
-0.281250
-0.156250
0.234375
0.093750
-0.015625
-0.390625
0.093750
-0.156250
-0.734375
0.093750
-0.281250
-0.156250
-0.546875
0.750000
0.093750
-0.156250
-0.156250
-0.281250
0.750000
0.093750
-0.390625
0.093750
0.093750
-0.281250
0.093750
-0.390625
0.234375
-0.156250
-0.156250
-0.281250
-0.281250
0.234375
-0.156250
-1.296875
0.093750
-0.390625
-0.390625
-0.390625
0.750000
0.093750
-0.156250
0.093750
-0.015625
0.390625
-0.015625
-0.281250
0.093750
0.390625
-0.156250
-0.015625
-0.390625
0.234375
-0.156250
-0.281250
-0.015625
-0.281250
0.531250
-0.281250
-1.296875
0.093750
-0.281250
-0.281250
-0.390625
1.046875
-0.015625
-0.281250
-0.156250
0.093750
0.093750
-0.015625
-0.390625
0.093750
0.234375
-2.000000
0.093750
-0.390625
0.234375
0.093750
0.234375
-0.281250
-0.281250
0.390625
-0.390625
-0.281250
-0.015625
-0.156250
0.390625
-0.546875
0.390625
-0.281250
-0.390625
0.234375
0.234375
-0.281250
-0.390625
-0.281250
0.531250
-0.281250
0.093750
-0.156250
-0.281250
-0.281250
0.531250
-1.296875
0.234375
-0.390625
0.093750
0.093750
-0.390625
-0.156250
-0.156250
0.234375
-0.156250
0.234375
0.093750
-0.156250
-0.390625
0.390625
-0.156250
-0.156250
-0.390625
0.093750
-0.015625
0.531250
-0.156250
-0.390625
-0.390625
0.234375
0.750000
-0.390625
-0.546875
0.093750
0.093750
-1.296875
0.093750
-0.390625
0.390625
-0.546875
0.531250
-0.281250
-0.281250
-0.281250
0.531250
-0.281250
-0.390625
-0.281250
-0.546875
0.234375
1.046875
0.093750
-0.281250
-0.390625
0.531250
-0.546875
-0.156250
-0.546875
0.093750
0.234375
-0.546875
0.093750
-0.281250
-0.015625
-0.156250
0.750000
-0.156250
-0.156250
-0.390625
0.234375
0.750000
0.093750
-0.390625
-0.390625
0.234375
-0.156250
0.390625
-0.156250
-0.015625
0.390625
-0.546875
0.093750
-0.546875
0.390625
0.093750
-1.000000
0.093750
-0.281250
-0.156250
-0.156250
1.046875
-0.015625
-0.281250
-0.390625
0.390625
0.234375
-0.015625
-0.546875
0.093750
-0.015625
0.234375
0.234375
-0.390625
0.093750
0.390625
-0.281250
0.093750
-0.390625
0.531250
-0.015625
-1.000000
-0.156250
-0.390625
-0.156250
-0.390625
1.375000
-0.015625
-0.281250
-0.281250
0.093750
0.531250
-0.281250
-0.281250
-0.156250
0.390625
0.234375
0.093750
-0.156250
0.234375
-0.015625
-0.390625
0.093750
-0.390625
0.234375
-0.015625
-1.296875
0.093750
-0.281250
0.093750
-0.390625
1.046875
-0.281250
-0.281250
-0.015625
0.234375
-0.546875
-0.390625
-0.546875
-0.390625
0.390625
-0.390625
-0.156250
-0.390625
0.093750
-0.156250
0.234375
-0.281250
-0.281250
0.390625
0.093750
-1.000000
-0.015625
-0.156250
0.750000
-0.390625
0.531250
-0.546875
-0.156250
0.234375
0.093750
-0.281250
-0.281250
-0.281250
0.234375
-0.546875
-0.390625
0.390625
-0.390625
-0.281250
0.531250
-0.281250
-0.281250
-0.546875
-0.156250
-0.015625
-0.156250
-0.015625
-0.281250
0.234375
-0.390625
0.750000
-0.281250
-0.015625
-0.281250
0.390625
0.390625
-0.281250
-0.281250
0.390625
-0.156250
-1.000000
0.531250
-0.390625
-0.156250
0.390625
0.750000
-0.390625
-0.546875
0.093750
0.234375
-1.296875
0.093750
-0.156250
0.390625
-0.734375
0.531250
-0.281250
-0.156250
-0.546875
0.390625
-0.015625
0.390625
-0.390625
0.093750
0.093750
0.531250
-0.156250
-0.390625
-0.156250
0.390625
0.234375
-0.546875
-0.390625
-0.015625
0.390625
-0.734375
-0.015625
-0.390625
0.531250
-0.734375
0.093750
-0.156250
-0.281250
-0.015625
0.234375
-1.000000
0.390625
-0.546875
0.531250
0.093750
-0.546875
-0.281250
-0.390625
-0.281250
0.531250
-0.390625
-0.156250
-0.546875
0.093750
0.234375
-0.390625
-0.156250
-0.156250
0.390625
-0.546875
0.531250
0.093750
-0.015625
-0.390625
-0.015625
-0.281250
0.234375
-0.546875
0.531250
-0.156250
-0.734375
-0.546875
-0.281250
-0.015625
0.390625
0.093750
-0.281250
-0.546875
0.390625
0.093750
-1.000000
0.093750
-0.281250
0.531250
-0.734375
0.750000
-0.281250
-0.156250
0.093750
0.234375
-0.390625
-0.156250
-0.390625
-0.390625
0.390625
-0.015625
-0.156250
-0.390625
0.234375
0.093750
0.234375
-0.281250
-0.281250
0.093750
0.531250
-1.000000
0.234375
-0.390625
0.531250
-0.390625
0.390625
-0.281250
-0.281250
0.093750
0.093750
-0.015625
-0.156250
-0.390625
-0.734375
0.531250
0.531250
0.093750
-0.390625
-0.015625
0.234375
-0.390625
0.093750
-0.390625
0.093750
0.093750
-0.546875
0.234375
-0.390625
1.046875
-0.546875
0.390625
-0.546875
-0.156250
0.093750
-0.015625
-0.156250
0.093750
-0.281250
0.093750
-0.156250
-0.281250
-0.015625
-0.281250
-0.734375
0.750000
-1.000000
0.234375
-0.390625
-0.015625
0.234375
-0.281250
0.093750
-0.281250
0.531250
-0.390625
0.750000
-0.546875
-0.156250
-0.281250
0.093750
-0.015625
0.234375
-0.390625
-0.390625
0.531250
-0.734375
0.093750
-0.390625
-0.546875
0.390625
0.750000
-0.015625
-0.390625
0.093750
0.234375
-0.734375
-0.015625
-0.281250
0.390625
-0.156250
0.531250
-0.734375
-0.156250
-0.281250
0.093750
-0.734375
0.390625
-0.390625
-0.734375
0.234375
0.234375
0.390625
-0.281250
-0.734375
0.390625
0.093750
0.093750
-0.546875
-0.015625
0.390625
0.093750
-0.156250
-0.281250
0.390625
-0.281250
0.093750
-0.546875
-0.015625
-0.156250
-0.015625
-0.015625
0.390625
-0.546875
0.093750
0.093750
-1.000000
0.234375
-0.156250
-0.156250
0.531250
-0.546875
0.093750
-0.390625
-0.015625
0.093750
-0.390625
-0.156250
-0.390625
-0.156250
-0.546875
0.531250
-0.156250
-0.156250
-0.281250
-0.015625
0.390625
0.234375
-0.390625
-0.015625
0.093750
-0.546875
0.093750
-0.390625
-0.015625
0.390625
-0.281250
-0.156250
-0.390625
-0.281250
0.093750
-0.156250
-0.281250
-0.156250
0.093750
-0.390625
0.750000
-0.156250
-0.281250
-0.281250
0.093750
-0.734375
0.234375
-0.390625
-0.015625
0.234375
-0.390625
0.093750
-0.390625
-0.156250
0.093750
0.234375
0.234375
-0.546875
-0.156250
0.093750
-0.156250
-0.281250
-0.281250
0.093750
-0.156250
0.750000
-0.281250
-0.281250
-0.281250
-0.015625
0.750000
-0.156250
-0.281250
0.093750
-0.156250
-0.546875
0.093750
-0.546875
-0.015625
-0.015625
-0.156250
0.234375
-0.390625
-0.015625
-0.015625
-0.734375
0.093750
-0.281250
0.531250
0.093750
-0.390625
-0.281250
-0.156250
-0.734375
0.390625
1.046875
0.093750
-0.281250
1.046875
-0.734375
-0.390625
-0.015625
-0.390625
-0.734375
0.750000
-1.000000
0.531250
-0.390625
0.093750
0.234375
-0.015625
-0.546875
-0.390625
0.531250
-0.015625
0.531250
-0.546875
-0.015625
-0.734375
0.234375
0.750000
0.093750
-0.281250
-0.734375
-0.281250
1.375000
0.531250
-0.390625
-1.000000
0.390625
0.093750
0.234375
-0.281250
-0.156250
0.390625
0.750000
-0.281250
-0.281250
0.531250
-0.281250
1.375000
-1.000000
-0.156250
-0.156250
-0.156250
0.390625
0.093750
-0.156250
-0.281250
-0.156250
0.531250
0.531250
-0.390625
-1.296875
0.390625
0.531250
0.234375
-0.390625
0.093750
0.234375
-0.546875
0.093750
-0.281250
0.390625
-0.156250
1.046875
-0.546875
-0.156250
-0.281250
-0.015625
1.046875
-0.015625
-0.390625
0.531250
-0.546875
-1.000000
0.390625
-0.390625
-0.546875
0.234375
-0.390625
0.234375
-0.281250
0.234375
0.234375
-0.734375
-0.281250
-0.281250
0.093750
-0.156250
1.375000
-0.734375
-0.156250
-0.281250
-0.015625
0.750000
0.093750
-0.390625
0.234375
-0.281250
0.093750
0.234375
-0.546875
-0.281250
0.390625
-0.546875
0.093750
-0.281250
0.093750
0.093750
-0.390625
-0.281250
-0.156250
0.234375
-0.156250
0.531250
-0.390625
-0.015625
-0.281250
0.234375
0.531250
0.093750
-0.390625
0.093750
-0.546875
0.390625
0.093750
-0.390625
-0.546875
0.093750
0.390625
0.234375
-0.390625
-0.156250
0.390625
-1.296875
-0.281250
-0.281250
0.093750
-0.156250
1.375000
-0.390625
-0.015625
-0.015625
0.093750
0.234375
-0.281250
-0.390625
0.093750
-0.156250
-0.734375
0.531250
-0.546875
0.093750
-0.015625
-0.390625
0.390625
-0.546875
-0.281250
0.531250
-0.390625
-0.281250
-0.281250
0.234375
-0.734375
1.375000
-0.546875
-0.281250
-0.156250
0.750000
0.234375
-0.734375
-0.156250
-0.156250
0.234375
-2.000000
0.093750
-0.390625
-0.156250
0.750000
-0.281250
0.093750
-0.734375
-0.156250
0.390625
-0.734375
-0.734375
-0.390625
-0.015625
-0.281250
0.750000
-0.390625
-0.015625
-0.281250
0.750000
-0.546875
-0.546875
-0.281250
-0.156250
-0.015625
0.750000
-0.156250
-0.281250
-0.390625
0.234375
0.093750
0.234375
-0.734375
-0.281250
0.531250
-1.296875
0.093750
-0.390625
0.531250
-0.015625
0.390625
-0.546875
-0.156250
-0.015625
0.531250
-1.296875
-0.281250
-0.390625
-0.546875
0.093750
0.093750
0.093750
-0.546875
-0.015625
-0.156250
0.531250
-0.546875
-0.390625
0.093750
0.390625
-1.296875
-0.156250
-0.281250
-0.015625
0.234375
-0.281250
-0.156250
-0.156250
0.390625
0.234375
-1.000000
-0.390625
-0.156250
0.093750
-0.015625
-0.390625
-0.015625
-0.390625
0.093750
0.750000
-1.296875
0.234375
-0.546875
0.234375
0.234375
-1.296875
0.093750
-0.390625
0.234375
-0.281250
0.234375
-0.281250
-0.281250
0.093750
0.093750
0.390625
-0.281250
-0.281250
-0.281250
0.390625
-0.281250
-0.156250
-0.546875
-0.390625
0.093750
-0.015625
0.390625
-0.546875
-0.281250
0.531250
-1.000000
0.093750
-0.281250
0.234375
-0.156250
0.093750
-0.546875
-0.156250
0.093750
-0.015625
0.750000
-0.390625
-0.281250
-0.546875
0.093750
1.046875
0.234375
-0.390625
-0.546875
0.390625
-0.281250
0.093750
-0.734375
-0.015625
0.234375
-1.296875
0.234375
-0.281250
-0.156250
-0.156250
1.046875
-0.546875
-0.156250
-0.156250
0.234375
-0.156250
-0.281250
-0.281250
-0.281250
0.234375
-1.000000
0.390625
-0.281250
-0.015625
0.093750
-0.734375
0.390625
-0.734375
0.234375
0.390625
-0.390625
-0.281250
