0.296875
-0.203125
-1.343750
0.468750
-0.078125
-0.578125
-0.078125
-0.390625
0.296875
0.468750
0.296875
-0.390625
-0.578125
0.296875
-0.203125
-0.578125
-0.203125
-0.203125
0.468750
0.109375
-1.343750
-1.343750
-0.578125
0.109375
-0.203125
0.656250
0.656250
-0.812500
-0.203125
-0.812500
0.109375
0.468750
-0.203125
0.656250
0.468750
-0.203125
0.296875
-0.812500
0.109375
-1.343750
-0.078125
0.109375
0.296875
-0.578125
-0.578125
0.296875
0.468750
-0.203125
-0.578125
-1.062500
-0.203125
0.296875
0.468750
0.296875
0.656250
0.109375
0.109375
-0.078125
0.296875
-0.078125
0.468750
0.109375
-0.203125
-0.578125
-1.062500
0.468750
-0.078125
-0.078125
-0.390625
0.468750
0.468750
-0.812500
-0.078125
-0.390625
0.656250
0.296875
0.468750
-0.078125
0.109375
0.109375
-0.078125
-0.578125
-0.812500
0.296875
0.296875
0.296875
-0.078125
-0.390625
0.109375
-0.578125
0.296875
-0.203125
0.109375
-0.390625
0.468750
0.468750
-0.390625
0.468750
-0.390625
0.296875
-0.578125
0.109375
0.109375
0.109375
0.109375
-0.578125
-0.390625
-0.078125
-0.078125
-0.078125
0.296875
-0.203125
0.109375
-0.078125
-0.078125
0.984375
0.296875
-0.203125
-0.390625
0.656250
-0.078125
0.109375
-0.078125
0.656250
0.296875
-1.343750
-0.078125
-2.000000
-0.578125
0.109375
0.468750
0.656250
0.109375
-0.078125
0.656250
-0.812500
-0.203125
-2.000000
-0.578125
0.296875
-0.203125
-1.062500
-2.000000
-0.203125
-1.062500
-0.078125
-0.390625
-0.812500
-0.812500
0.109375
-0.078125
0.109375
-0.078125
-0.203125
-1.343750
-0.203125
-0.078125
0.296875
0.109375
0.109375
0.109375
-0.078125
0.109375
-0.078125
-0.078125
0.468750
-0.078125
-0.078125
-0.078125
-0.203125
0.468750
0.109375
0.296875
0.109375
0.109375
-0.578125
-0.390625
-1.343750
-1.843750
-0.078125
0.109375
-0.078125
-0.203125
-0.203125
-0.578125
-0.390625
0.468750
0.468750
-0.203125
-0.390625
0.468750
0.296875
-0.203125
0.296875
-0.203125
0.109375
0.296875
0.468750
0.984375
0.468750
-0.390625
0.468750
0.468750
-0.578125
0.296875
0.656250
0.109375
-0.812500
-0.203125
0.656250
0.468750
-0.078125
-0.203125
-0.203125
-0.078125
-0.203125
0.109375
-0.390625
-0.203125
-0.390625
-0.390625
-0.078125
0.109375
0.109375
0.656250
0.984375
-0.203125
-0.578125
0.109375
0.109375
-0.203125
0.109375
0.468750
-0.078125
-0.078125
-0.078125
0.109375
0.109375
-0.078125
0.984375
0.468750
-0.203125
0.296875
-0.203125
0.984375
0.109375
-0.078125
-0.578125
-0.390625
-1.062500
0.296875
0.109375
-0.078125
-0.078125
-2.000000
0.109375
0.296875
0.109375
0.109375
-0.203125
-0.078125
0.296875
-0.203125
-0.078125
-0.578125
0.109375
0.296875
-0.078125
0.109375
-0.390625
0.468750
-0.078125
-0.203125
0.109375
0.109375
-0.578125
-1.843750
-1.843750
-0.390625
-0.203125
-0.812500
-0.578125
-0.390625
-0.390625
-1.343750
0.468750
-0.390625
-1.062500
-0.812500
-1.062500
0.468750
0.468750
-0.390625
0.109375
-1.343750
0.656250
0.468750
-0.390625
0.296875
0.109375
