0.218750
0.218750
0.046875
0.046875
-0.234375
0.343750
0.093750
-0.140625
0.046875
-0.078125
0.093750
0.046875
-0.140625
0.156250
-0.140625
0.046875
0.093750
0.093750
0.093750
0.218750
0.156250
0.046875
0.046875
0.046875
0.218750
-0.781250
-0.593750
0.093750
0.218750
0.453125
-0.453125
-0.453125
0.093750
-0.140625
0.343750
-0.234375
0.093750
-0.078125
0.046875
0.046875
-0.140625
-0.140625
-0.015625
-0.140625
-0.015625
-0.453125
-0.328125
-0.234375
-0.140625
-0.015625
-0.593750
-0.593750
0.218750
-0.078125
0.218750
-0.078125
-0.140625
-0.328125
-0.593750
-0.328125
0.046875
-0.078125
-0.015625
0.046875
-0.234375
-0.015625
0.218750
0.156250
0.156250
-0.015625
0.046875
-0.078125
0.156250
0.093750
0.046875
0.093750
0.343750
0.046875
0.156250
-0.593750
0.046875
0.156250
0.218750
0.453125
0.046875
0.093750
0.093750
0.046875
-0.015625
0.046875
-0.078125
-0.328125
-0.328125
-0.234375
-0.140625
0.046875
0.046875
-0.140625
0.093750
-0.140625
0.218750
-0.140625
0.093750
0.218750
0.343750
0.093750
0.046875
0.046875
0.156250
0.343750
-0.234375
0.156250
0.046875
0.093750
-0.140625
0.093750
-0.140625
-0.328125
0.093750
0.453125
-0.078125
0.046875
-0.453125
-0.328125
-0.328125
-0.593750
-0.453125
-0.234375
-0.328125
-0.328125
-0.593750
-0.453125
-0.453125
0.046875
0.093750
-0.234375
-0.234375
0.046875
0.046875
0.343750
-0.015625
0.218750
0.156250
0.046875
0.218750
0.343750
0.218750
0.218750
0.343750
0.453125
0.046875
0.343750
0.046875
0.093750
0.093750
-0.015625
-0.015625
0.046875
0.156250
0.046875
0.156250
0.046875
-0.078125
0.093750
0.343750
0.343750
0.218750
0.093750
0.046875
0.156250
0.453125
0.453125
0.218750
0.156250
-0.140625
0.093750
0.046875
-0.140625
-0.015625
-0.328125
-0.078125
-0.015625
-0.015625
-0.140625
-0.328125
-0.078125
-0.078125
-0.015625
-0.140625
-0.140625
-0.078125
0.093750
0.093750
0.046875
0.093750
0.453125
0.343750
0.343750
0.156250
0.218750
0.046875
-0.078125
-0.140625
-0.015625
0.093750
0.046875
0.156250
0.046875
0.218750
0.093750
-0.328125
-0.078125
-0.015625
0.156250
0.046875
-0.140625
-0.078125
0.046875
0.093750
-0.078125
-0.234375
-0.015625
0.046875
0.093750
-0.140625
0.046875
0.343750
0.156250
0.156250
0.046875
-0.328125
0.453125
0.156250
0.453125
0.218750
-1.125000
-0.140625
-0.140625
0.093750
0.046875
-1.125000
-0.234375
-0.453125
-0.078125
-1.312500
-0.328125
-0.015625
-0.078125
-0.234375
-0.593750
-0.078125
0.046875
0.156250
0.046875
-0.234375
-0.015625
-0.234375
0.093750
0.156250
-0.015625
0.046875
0.046875
0.046875
0.046875
0.343750
0.218750
0.046875
0.093750
0.218750
0.218750
0.093750
0.218750
0.093750
0.218750
0.343750
0.453125
0.218750
0.218750
0.093750
0.156250
0.156250
-0.015625
-0.078125
0.046875
0.156250
0.343750
-0.140625
-0.140625
0.046875
0.343750
0.453125
-0.015625
-0.140625
0.156250
0.343750
0.453125
0.453125
0.453125
0.343750
0.453125
